digraph Tree {
node [shape=box, style="filled, rounded", color="black", fontname=helvetica] ;
edge [fontname=helvetica] ;
0 [label="Age-at-heart-attack <= 0.74\nentropy = 1.0\nsamples = 45\nvalue = [35.36, 39.55]\nclass = l", fillcolor="#399de51b"] ;
1 [label="Age-at-heart-attack <= -0.2\nentropy = 0.95\nsamples = 37\nvalue = [23.02, 39.55]\nclass = l", fillcolor="#399de56b"] ;
0 -> 1 [labeldistance=2.5, labelangle=45, headlabel="True"] ;
2 [label="Age-at-heart-attack <= -1.01\nentropy = 0.99\nsamples = 20\nvalue = [18.91, 15.31]\nclass = A", fillcolor="#e5813931"] ;
1 -> 2 ;
3 [label="Age-at-heart-attack <= -2.08\nentropy = 0.8\nsamples = 7\nvalue = [3.29, 10.21]\nclass = l", fillcolor="#399de5ad"] ;
2 -> 3 ;
4 [label="entropy = 0.93\nsamples = 2\nvalue = [2.47, 1.28]\nclass = A", fillcolor="#e581397b"] ;
3 -> 4 ;
5 [label="lvdd <= -0.63\nentropy = 0.42\nsamples = 5\nvalue = [0.82, 8.93]\nclass = l", fillcolor="#399de5e8"] ;
3 -> 5 ;
6 [label="entropy = 0.0\nsamples = 3\nvalue = [0.0, 6.38]\nclass = l", fillcolor="#399de5ff"] ;
5 -> 6 ;
7 [label="entropy = 0.8\nsamples = 2\nvalue = [0.82, 2.55]\nclass = l", fillcolor="#399de5ad"] ;
5 -> 7 ;
8 [label="epss <= -0.37\nentropy = 0.81\nsamples = 13\nvalue = [15.62, 5.1]\nclass = A", fillcolor="#e58139ac"] ;
2 -> 8 ;
9 [label="lvdd <= -0.07\nentropy = 1.0\nsamples = 6\nvalue = [5.76, 5.1]\nclass = A", fillcolor="#e581391d"] ;
8 -> 9 ;
10 [label="entropy = 0.58\nsamples = 4\nvalue = [0.82, 5.1]\nclass = l", fillcolor="#399de5d6"] ;
9 -> 10 ;
11 [label="entropy = 0.0\nsamples = 2\nvalue = [4.93, 0.0]\nclass = A", fillcolor="#e58139ff"] ;
9 -> 11 ;
12 [label="entropy = 0.0\nsamples = 7\nvalue = [9.87, 0.0]\nclass = A", fillcolor="#e58139ff"] ;
8 -> 12 ;
13 [label="lvdd <= -0.06\nentropy = 0.6\nsamples = 17\nvalue = [4.11, 24.24]\nclass = l", fillcolor="#399de5d4"] ;
1 -> 13 ;
14 [label="Wall-motion-index <= -0.39\nentropy = 0.84\nsamples = 9\nvalue = [3.29, 8.93]\nclass = l", fillcolor="#399de5a1"] ;
13 -> 14 ;
15 [label="Fractional-shortening <= -0.2\nentropy = 0.58\nsamples = 4\nvalue = [0.82, 5.1]\nclass = l", fillcolor="#399de5d6"] ;
14 -> 15 ;
16 [label="entropy = 0.97\nsamples = 2\nvalue = [0.82, 1.28]\nclass = l", fillcolor="#399de55b"] ;
15 -> 16 ;
17 [label="entropy = 0.0\nsamples = 2\nvalue = [0.0, 3.83]\nclass = l", fillcolor="#399de5ff"] ;
15 -> 17 ;
18 [label="lvdd <= -0.69\nentropy = 0.97\nsamples = 5\nvalue = [2.47, 3.83]\nclass = l", fillcolor="#399de55b"] ;
14 -> 18 ;
19 [label="entropy = 0.0\nsamples = 2\nvalue = [1.64, 0.0]\nclass = A", fillcolor="#e58139ff"] ;
18 -> 19 ;
20 [label="entropy = 0.67\nsamples = 3\nvalue = [0.82, 3.83]\nclass = l", fillcolor="#399de5c8"] ;
18 -> 20 ;
21 [label="Pericardial-effusion <= 0.92\nentropy = 0.29\nsamples = 8\nvalue = [0.82, 15.31]\nclass = l", fillcolor="#399de5f1"] ;
13 -> 21 ;
22 [label="entropy = 0.0\nsamples = 4\nvalue = [0.0, 11.48]\nclass = l", fillcolor="#399de5ff"] ;
21 -> 22 ;
23 [label="Age-at-heart-attack <= 0.07\nentropy = 0.67\nsamples = 4\nvalue = [0.82, 3.83]\nclass = l", fillcolor="#399de5c8"] ;
21 -> 23 ;
24 [label="entropy = 0.0\nsamples = 2\nvalue = [0.0, 2.55]\nclass = l", fillcolor="#399de5ff"] ;
23 -> 24 ;
25 [label="entropy = 0.97\nsamples = 2\nvalue = [0.82, 1.28]\nclass = l", fillcolor="#399de55b"] ;
23 -> 25 ;
26 [label="entropy = 0.0\nsamples = 8\nvalue = [12.33, 0.0]\nclass = A", fillcolor="#e58139ff"] ;
0 -> 26 [labeldistance=2.5, labelangle=-45, headlabel="False"] ;
}